module.exports = {
	"layers": [
		[
			0,
			1,
			0,
			0,
			0
		],
		[
			0.9603781727597813,
			0.9537920051612664,
			0.019603255572548682,
			0.8868560084558784,
			0.32692071799222655
		],
		[
			0.02702247267221822,
			0.9649505545452086,
			0.0002118799746574752,
			0.019542081999222995,
			0.0028552518832332023
		]
	],
	"weights": [
		[
			[
				3.3300101122813888,
				3.1880851874817946,
				1.7455920282435422,
				-0.3424178064293324,
				-3.6321228611966383
			],
			[
				0.4212164008310722,
				3.0275095109183567,
				-1.7796546140028144,
				-1.8938861431719254,
				2.3958759238510523
			],
			[
				3.673251220844755,
				-3.9124456795125884,
				3.407562924240692,
				-2.36542907504369,
				2.4044942503894386
			],
			[
				1.5988642571465947,
				2.059031243529179,
				-2.7251791255026725,
				1.8450667247853179,
				2.6209189924972964
			],
			[
				-3.9291684394606055,
				-0.7222007315375493,
				2.3005677091114056,
				4.304654250669662,
				0.4059509220264749
			]
		],
		[
			[
				1.2799048383851805,
				-1.059103664156201,
				3.7674026107645524,
				-0.8592747144649296,
				-9.532761597298448
			],
			[
				2.623472854540964,
				2.7343370130396774,
				-7.686034905301411,
				-0.3535559490753212,
				-4.113358301610317
			],
			[
				-0.331496922813803,
				-3.639157856638062,
				3.554571872648035,
				-5.901750473609124,
				1.512308389220162
			],
			[
				-3.6495620689556127,
				-2.50355619198306,
				-5.966746649997442,
				0.23444756790154447,
				5.767171640984125
			],
			[
				-8.006566086092494,
				1.7291393630208645,
				2.4824028630622634,
				0.6668591436224212,
				-1.394029869277537
			]
		]
	]
}